AdaBoostM1: Base classifiers and their weights: 

J48 unpruned tree
------------------

ATFD_method <= 4
|   ATFD_method <= 2: false (254.0)
|   ATFD_method > 2
|   |   LAA_method <= 0.448276: true (5.0/1.0)
|   |   LAA_method > 0.448276: false (13.0)
ATFD_method > 4
|   LAA_method <= 0.428571
|   |   complextype = DocumentParseFixture: true (0.0)
|   |   complextype = ReferenceFixture: true (1.0)
|   |   complextype = GrammerException: true (0.0)
|   |   complextype = SourceCodeParser: true (3.0)
|   |   complextype = SourceCodeBuilder: true (1.0)
|   |   complextype = WeekendHolidayCalendar: true (0.0)
|   |   complextype = HolidayCalendarFactoryImpl: true (0.0)
|   |   complextype = PlainSwap: true (0.0)
|   |   complextype = ScheduleGenerator: true (1.0)
|   |   complextype = DOMParser: true (0.0)
|   |   complextype = DOMFragmentParser: true (0.0)
|   |   complextype = HTMLTagBalancer: true (1.0)
|   |   complextype = ObjectFactory: true (0.0)
|   |   complextype = HTMLConfiguration: true (1.0)
|   |   complextype = HTMLScanner.ContentScanner: true (1.0)
|   |   complextype = MemoryUsage: true (0.0)
|   |   complextype = TLinkedList.IteratorImpl: true (1.0)
|   |   complextype = JMSBroadcastingListener: true (0.0)
|   |   complextype = com.opensymphony.oscache.plugins.clustersupport.JMSBroadcastingListener$1: true (0.0)
|   |   complextype = AbstractConcurrentReadCache: true (0.0)
|   |   complextype = Registry: true (0.0)
|   |   complextype = GraphTransformer: true (1.0)
|   |   complextype = GraphAction.LampLighter: true (1.0)
|   |   complextype = GraphXmlSerializer: true (0.0)
|   |   complextype = ConstraintData: true (1.0)
|   |   complextype = BooleanLiteralAST: true (0.0)
|   |   complextype = JavaParser: true (0.0)
|   |   complextype = MT940: true (0.0)
|   |   complextype = AccountEntriesPanel.EntryCellRenderer: true (1.0)
|   |   complextype = JavaFileGenerator: true (0.0)
|   |   complextype = JJDoc: false (1.0)
|   |   complextype = Semanticize: true (1.0)
|   |   complextype = OptionsDialog: true (0.0)
|   |   complextype = jsXe: true (0.0)
|   |   complextype = DOMSerializer: true (1.0)
|   |   complextype = JUnit3Builder: true (0.0)
|   |   complextype = IgnoredBuilder: true (0.0)
|   |   complextype = CheckboxTableDecorator: true (0.0)
|   |   complextype = HtmlTagUtil: true (0.0)
|   |   complextype = ObjectInputStreamSupport: true (0.0)
|   |   complextype = DefaultDynamicMBean: true (1.0)
|   |   complextype = MBeanServerImpl: true (0.0)
|   |   complextype = ByteBufferOutputStream: true (0.0)
|   |   complextype = Propertie: true (0.0)
|   |   complextype = SecureStoreManager: true (1.0)
|   |   complextype = PluginArchiver: true (0.0)
|   |   complextype = BaseJpfTask: true (0.0)
|   |   complextype = ShadowDataController: true (0.0)
|   |   complextype = PluginRegistryImpl: true (0.0)
|   |   complextype = CustomPermissionsURLClassLoader: true (0.0)
|   |   complextype = PoolElement: true (2.0)
|   |   complextype = CmdKickToRoom: true (1.0)
|   |   complextype = HtmlEncoder: true (0.0)
|   |   complextype = UML2JagGenerator: true (2.0)
|   |   complextype = SkeletValidator: true (1.0)
|   |   complextype = SphericalLens: true (0.0)
|   |   complextype = PinholeLens: true (0.0)
|   |   complextype = Bitmap: true (0.0)
|   |   complextype = PhongShader: true (1.0)
|   |   complextype = KDTree: true (0.0)
|   |   complextype = BucketRenderer: true (0.0)
|   |   complextype = RPObjectDAO: true (0.0)
|   |   complextype = RPObject: true (0.0)
|   |   complextype = CollectionPermutationIter: true (0.0)
|   |   complextype = AbstractBaseGraph: true (1.0)
|   |   complextype = KShortestPathsIterator: true (1.0)
|   |   complextype = DeclaredExceptionTable: true (0.0)
|   |   complextype = OptsParser: true (0.0)
|   |   complextype = DataFactory: true (0.0)
|   |   complextype = InstrVisitor.clinitHeader: true (1.0)
|   |   complextype = ReportGenerator: true (0.0)
|   |   complextype = AbstractReportGenerator: true (0.0)
|   |   complextype = BridgePatternParser: true (0.0)
|   |   complextype = ThreadPatternConverter: true (0.0)
|   |   complextype = ConnectionFactory: true (0.0)
|   |   complextype = AbstractAxionBlob: true (0.0)
|   |   complextype = BaseArrayIndex: true (1.0)
|   |   complextype = AxionSqlParser: true (1.0)
|   |   complextype = SelectCommand: true (1.0)
|   |   complextype = AnnealingLayoutSettings: true (0.0)
|   |   complextype = GEMLayoutSettings: true (1.0)
|   |   complextype = JGraphGEOCodec: true (0.0)
|   |   complextype = org.microplatform.gui.MDIContainer$1: true (1.0)
|   |   complextype = CsWord: true (0.0)
|   |   complextype = DefaultProjectManager: true (1.0)
|   |   complextype = JavaParser15Debug: true (0.0)
|   |   complextype = XMLSchedulingDataProcessor: true (1.0)
|   |   complextype = JobStoreSupport: true (1.0)
|   |   complextype = MP3Frame: true (0.0)
|   |   complextype = MP3Helper: true (1.0)
|   |   complextype = WebMacro: true (0.0)
|   |   complextype = AnakiaTask: true (0.0)
|   |   complextype = SimpleMBean: true (0.0)
|   |   complextype = PageViewPlugin.PageViewManager: true (1.0)
|   |   complextype = RecentChangesPlugin: true (1.0)
|   |   complextype = JGraphExampleLayoutCache: true (0.0)
|   |   complextype = JGraphMedianHybridCrossingReduction: true (0.0)
|   |   complextype = FlyweightUIComponent: true (0.0)
|   |   complextype = DataTransactionLogEntry: true (0.0)
|   |   complextype = ProxyGenerator: true (0.0)
|   |   complextype = URIHelper: true (1.0)
|   |   complextype = UserAdapter: true (0.0)
|   |   complextype = ListParser2: true (1.0)
|   |   complextype = NumericalIntegration: true (0.0)
|   |   complextype = Exponential: true (0.0)
|   |   complextype = ExponentialIntegral: true (0.0)
|   |   complextype = EigenvalueDecomposition: true (0.0)
|   |   complextype = BitVector: true (0.0)
|   |   complextype = PickableVertexPaintTransformer: true (0.0)
|   |   complextype = GraphElementParser: true (1.0)
|   |   complextype = JDBCResourceManager: true (0.0)
|   |   complextype = SearchEntryPanel: true (1.0)
|   |   complextype = LoadMessageThread: true (1.0)
|   |   complextype = CachingFolderInfo: true (0.0)
|   |   complextype = DesktopConfiguration: true (0.0)
|   |   complextype = Desktop.DesktopScreen: true (0.0)
|   |   complextype = org.lnicholls.galleon.apps.email.Email$3: true (1.0)
|   |   complextype = InternetSlideshows: true (0.0)
|   |   complextype = DefaultApplication: true (1.0)
|   |   complextype = PersistentValueManager: true (0.0)
|   |   complextype = Traffic: true (0.0)
|   |   complextype = TiVoListener: true (1.0)
|   |   complextype = HarvestAgentFactoryImpl: true (0.0)
|   |   complextype = HarvesterStatusUtil: true (0.0)
|   |   complextype = InTrayController: true (1.0)
|   |   complextype = ProfileManager: true (1.0)
|   |   complextype = TreeToolController: true (1.0)
|   |   complextype = GeneratePermissionTemplateController: true (1.0)
|   |   complextype = TargetManagerImpl: true (2.0)
|   |   complextype = CreateUserController: true (1.0)
|   |   complextype = TargetSchedulesHandler: true (1.0)
|   |   complextype = LogReaderController: true (1.0)
|   |   complextype = TargetSeedsHandler: true (1.0)
|   |   complextype = CaughtClassFilter: true (0.0)
|   |   complextype = ReadWriteFieldMarker: true (1.0)
|   |   complextype = SideEffectInstructionChecker: false (1.0)
|   |   complextype = ReTrace: true (0.0)
|   |   complextype = Utilities: true (0.0)
|   |   complextype = Profile: true (1.0)
|   |   complextype = MetaWeblogAPIHandler: true (1.0)
|   |   complextype = MailUtil: true (0.0)
|   |   complextype = MenuHelper: true (1.0)
|   |   complextype = MessageFolderWebHandler: true (2.0)
|   |   complextype = WatchWebHandler: true (1.0)
|   |   complextype = PmAttachmentWebHandler: true (1.0)
|   |   complextype = AttachmentWebHandler: true (1.0)
|   |   complextype = OnlineUserFactoryImpl: true (1.0)
|   |   complextype = AbstractTracker: true (0.0)
|   |   complextype = RegexpHTMLLinkExtractor: true (0.0)
|   |   complextype = JobConfigureUtils: true (0.0)
|   |   complextype = ExtractorHTML: true (0.0)
|   |   complextype = CrawlSettingsSAXHandler: false (1.0)
|   |   complextype = GanttXMLFileFilter: true (0.0)
|   |   complextype = ExtensionBasedFileFilter: true (0.0)
|   |   complextype = GanttMPXJOpen: true (1.0)
|   |   complextype = CSVSettingsPanel: true (1.0)
|   |   complextype = GanttOptions.GanttXMLOptionsParser: true (1.0)
|   |   complextype = BrowseHookFactory: true (0.0)
|   |   complextype = MindMapNodeDropListener: true (1.0)
|   |   complextype = ImportMindmanagerFiles: true (0.0)
|   |   complextype = PasteAction: true (0.0)
|   |   complextype = BasicRulesTest: true (0.0)
|   |   complextype = Benchmark: true (1.0)
|   |   complextype = PdfCollection: false (1.0)
|   |   complextype = Encoder: true (1.0)
|   |   complextype = CMapParser: true (0.0)
|   |   complextype = FactoryProperties: true (1.0)
|   |   complextype = TIFFFaxDecoder: true (0.0)
|   |   complextype = PdfDocument: true (1.0)
|   |   complextype = PdfContentByte: true (1.0)
|   |   complextype = AcroFields: true (1.0)
|   |   complextype = BidiOrder: true (0.0)
|   |   complextype = PdfPRow: true (1.0)
|   |   complextype = SimpleBookmark: true (1.0)
|   |   complextype = HistoryButton: true (0.0)
|   |   complextype = HelpIndex: true (1.0)
|   |   complextype = ChunkCache: true (1.0)
|   |   complextype = Buffer: true (1.0)
|   |   complextype = ExtendedGridLayout: true (0.0)
|   |   complextype = ColumbaTrayIcon: true (0.0)
|   |   complextype = SMTPServer: true (1.0)
|   |   complextype = EudoraMailImportFilter: true (0.0)
|   |   complextype = AbstractLocator: true (0.0)
|   |   complextype = BezierPointLocator: true (0.0)
|   |   complextype = ODGStylesReader: true (1.0)
|   |   complextype = ODGInputFormat: true (1.0)
|   |   complextype = DefaultDrawingViewTransferHandler: true (0.0)
|   |   complextype = CustomDistortionTrack: true (0.0)
|   |   complextype = BendDistortion: true (0.0)
|   |   complextype = TriangleMesh: true (0.0)
|   |   complextype = SplineMesh: true (0.0)
|   |   complextype = SoftwareCanvasDrawer: true (1.0)
|   |   complextype = PhotonMap: true (1.0)
|   |   complextype = Raytracer: true (2.0)
|   |   complextype = OBJExporter: true (1.0)
|   |   complextype = Raster: true (3.0)
|   |   complextype = ResultMetaData: true (0.0)
|   |   complextype = Result: true (1.0)
|   |   complextype = ParserDML: true (1.0)
|   |   complextype = SchemaObjectSet: true (1.0)
|   |   complextype = StatementDML: true (1.0)
|   |   complextype = ParserDQL: true (1.0)
|   |   complextype = Routine: true (1.0)
|   |   complextype = IndexAVL: true (1.0)
|   |   complextype = SqlFile: true (0.0)
|   |   complextype = BaseHashMap: true (0.0)
|   |   complextype = HttpMirrorThread: true (0.0)
|   |   complextype = MonitorHandler: true (1.0)
|   |   complextype = XMLVersionDetector: true (2.0)
|   |   complextype = XMLEntityManager: true (1.0)
|   |   complextype = sparql: true (0.0)
|   |   complextype = dbdump: true (0.0)
|   |   complextype = schemagen: true (1.0)
|   |   complextype = JenaReader: true (0.0)
|   |   complextype = LPInterpreter: true (1.0)
|   |   complextype = FBRuleInfGraph: true (0.0)
|   |   complextype = Node: true (0.0)
|   |   complextype = MessageDialog: true (0.0)
|   |   complextype = Relation: true (0.0)
|   |   complextype = TilePopup: true (1.0)
|   |   complextype = SimpleCombatModel: true (1.0)
|   |   complextype = InteractionsEditorKit: true (0.0)
|   |   complextype = InteractionsDJDocument: true (1.0)
|   |   complextype = AutoCompletePopup: true (0.0)
|   |   complextype = VariableStack: true (0.0)
|   |   complextype = Sort: true (0.0)
|   |   complextype = XSLTCDTMManager: true (1.0)
|   |   complextype = JAIFEnumConstant: true (0.0)
|   |   complextype = ClassParserUsingASM: true (0.0)
|   |   complextype = IsNullValueAnalysis: true (0.0)
|   |   complextype = FindOpenStream: true (1.0)
|   |   complextype = Father: true (0.0)
|   |   complextype = PartialTerminationDescriptor: true (1.0)
|   |   complextype = AbstractTransactionContext: true (1.0)
|   |   complextype = InterbaseQueryExpression: true (1.0)
|   |   complextype = Marshaller: true (0.0)
|   |   complextype = StringInputRenderer: true (1.0)
|   |   complextype = UserHandler: true (1.0)
|   |   complextype = PortletApplicationHandler: true (1.0)
|   |   complextype = SpiderWebPlot: true (0.0)
|   |   complextype = QueryTermExtractor: true (0.0)
|   |   complextype = Highlighter: true (0.0)
|   |   complextype = DirectoryReader: true (0.0)
|   |   complextype = FreqProxTermsWriter: true (1.0)
|   |   complextype = RemoteAddrValve: true (0.0)
|   |   complextype = JDBCAccessLogValve: true (0.0)
|   |   complextype = ManagerServlet: true (0.0)
|   |   complextype = ServiceRefFactory: true (1.0)
|   |   complextype = BotGUI: true (0.0)
|   |   complextype = MissileWeaponHandler: true (1.0)
|   |   complextype = WeaponHandler: true (0.0)
|   |   complextype = Mech: true (1.0)
|   |   complextype = AbstractAttackAction: true (1.0)
|   |   complextype = JRGenericPrintElementParameterFactory.Parameter: true (0.0)
|   |   complextype = JRXmlssExporter: true (0.0)
|   |   complextype = KDConditionalEstimator: true (0.0)
|   |   complextype = UnivariateKernelEstimator: true (0.0)
|   |   complextype = CheckEstimator: true (0.0)
|   |   complextype = SMO.BinarySMO: true (0.0)
|   |   complextype = UMLStereotypeTagDefinitionListModel: true (0.0)
|   |   complextype = CollectionsModelInterpreter: true (0.0)
|   |   complextype = FieldMethodZero: true (0.0)
|   |   complextype = Dir: true (0.0)
|   |   complextype = CorruptPowerPointFileException: true (0.0)
|   |   complextype = HSLFException: true (0.0)
|   |   complextype = XLS2CSVmra: true (1.0)
|   |   complextype = DataExtraction: true (1.0)
|   |   complextype = SimpleStorage: true (0.0)
|   |   complextype = SendMessage: true (1.0)
|   |   complextype = ServletLogger: true (0.0)
|   LAA_method > 0.428571
|   |   num_final_attributes <= 6
|   |   |   NOCS_type <= 0: true (5.0/1.0)
|   |   |   NOCS_type > 0: false (7.0)
|   |   num_final_attributes > 6: true (7.0)

Number of Leaves  : 	276

Size of the tree : 	283


Weight: 5.34

J48 unpruned tree
------------------

ATFD_method <= 6
|   CYCLO_method <= 4: false (316.51/0.5)
|   CYCLO_method > 4
|   |   ATFD_method <= 4
|   |   |   ATFD_method <= 2: false (22.61)
|   |   |   ATFD_method > 2
|   |   |   |   LAA_method <= 0.448276: true (2.01)
|   |   |   |   LAA_method > 0.448276: false (6.53)
|   |   ATFD_method > 4: true (8.54/1.0)
ATFD_method > 6
|   NMO_type <= 8
|   |   package = fat: true (0.0)
|   |   package = com.jasml.compiler: true (1.51)
|   |   package = com.jasml.decompiler: true (0.5)
|   |   package = org.jfin.date.holiday.defaultimpl: true (0.0)
|   |   package = org.jfin.date.web.example: true (0.0)
|   |   package = org.jfin.date: true (0.5)
|   |   package = org.cyberneko.html.parsers: true (0.0)
|   |   package = org.cyberneko.html: true (1.51)
|   |   package = gnu.trove.benchmark: true (0.0)
|   |   package = gnu.trove: true (0.0)
|   |   package = com.opensymphony.oscache.plugins.clustersupport: true (0.0)
|   |   package = com.opensymphony.oscache.base.algorithm: true (0.0)
|   |   package = org.quilt.reg: true (0.0)
|   |   package = org.quilt.cl: true (0.5)
|   |   package = org.quilt.cover.stmt: true (0.5)
|   |   package = net.sourceforge.squirrel_sql.plugins.graph.xmlbeans: true (0.0)
|   |   package = net.sourceforge.squirrel_sql.plugins.graph: true (0.0)
|   |   package = jparse.expr: true (0.0)
|   |   package = jparse: true (0.0)
|   |   package = net.sf.jmoney.io: true (0.0)
|   |   package = net.sf.jmoney.gui: true (0.5)
|   |   package = org.javacc.utils: true (0.0)
|   |   package = org.javacc.jjdoc: false (0.5)
|   |   package = org.javacc.parser: true (0.5)
|   |   package = net.sourceforge.jsxe.gui: true (0.0)
|   |   package = net.sourceforge.jsxe: false (0.5)
|   |   package = net.sourceforge.jsxe.dom: true (0.5)
|   |   package = org.junit.internal.builders: true (0.0)
|   |   package = org.displaytag.decorator: true (0.0)
|   |   package = org.displaytag.util: true (0.0)
|   |   package = com.adventnet.jmx: true (0.5)
|   |   package = org.quickserver.util.io: true (0.0)
|   |   package = org.quickserver.net.qsadmin.gui: true (0.0)
|   |   package = org.quickserver.security: true (0.5)
|   |   package = org.java.plugin.tools: true (0.0)
|   |   package = org.java.plugin.tools.ant: true (0.0)
|   |   package = org.java.plugin.standard: true (0.0)
|   |   package = org.java.plugin.registry.xml: true (0.0)
|   |   package = org.picocontainer.security: true (0.0)
|   |   package = freecs.auth.sqlConnectionPool: true (1.0)
|   |   package = freecs.commands: true (0.5)
|   |   package = freecs.util: true (0.0)
|   |   package = com.finalist.jag.uml: true (1.0)
|   |   package = com.finalist.jaggenerator: true (0.5)
|   |   package = org.sunflow.core.camera: true (0.0)
|   |   package = org.sunflow.image: true (0.0)
|   |   package = org.sunflow.core.shader: true (0.5)
|   |   package = org.sunflow.core.accel: true (0.0)
|   |   package = org.sunflow.core.renderer: true (0.0)
|   |   package = marauroa.server.game.db: true (0.0)
|   |   package = marauroa.common.game: true (0.0)
|   |   package = org.jgrapht.experimental.permutation: true (0.0)
|   |   package = org.jgrapht.graph: true (0.0)
|   |   package = org.jgrapht.alg: true (0.5)
|   |   package = com.vladium.jcd.cls.attribute: true (0.0)
|   |   package = com.vladium.util.args: true (0.0)
|   |   package = com.vladium.emma.data: true (0.0)
|   |   package = com.vladium.emma.instr: true (0.5)
|   |   package = com.vladium.emma.report.html: true (0.5)
|   |   package = com.vladium.emma.report: true (0.48)
|   |   package = org.apache.log4j.pattern: true (0.0)
|   |   package = org.axiondb.jdbc: true (0.0)
|   |   package = org.axiondb.engine: true (0.48)
|   |   package = org.axiondb.parser: true (0.0)
|   |   package = org.axiondb.engine.commands: true (0.48)
|   |   package = org.jgraph.plugins.layouts: true (0.5)
|   |   package = org.jgraph.plugins.codecs: true (0.0)
|   |   package = org.microplatform.gui: true (0.5)
|   |   package = org.jext.textarea: true (0.0)
|   |   package = org.jext.project: true (0.5)
|   |   package = net.sourceforge.cobertura.javancss.parser.java15.debug: true (0.0)
|   |   package = org.quartz.xml: true (0.5)
|   |   package = org.quartz.impl.jdbcjobstore: true (0.48)
|   |   package = com.anotherbigidea.flash.sound: true (0.5)
|   |   package = org.apache.velocity.convert: true (0.0)
|   |   package = org.apache.velocity.anakia: true (0.0)
|   |   package = com.ecyrd.management: true (0.0)
|   |   package = com.ecyrd.jspwiki.plugin: true (1.0)
|   |   package = com.jgraph.layout: true (0.0)
|   |   package = com.jgraph.layout.hierarchical: true (0.0)
|   |   package = com.jgraph.example.panelexample: true (0.0)
|   |   package = org.exolab.jms.tranlog: true (0.0)
|   |   package = org.exolab.jms.plugins.proxygen: true (0.0)
|   |   package = org.exolab.jms.net.uri: true (0.5)
|   |   package = fitlibrary.specify.entityParser: true (0.0)
|   |   package = fitlibraryGeneric.list: true (0.0)
|   |   package = cern.jet.math: true (0.0)
|   |   package = cern.colt.matrix.linalg: true (0.0)
|   |   package = cern.colt.bitvector: true (0.0)
|   |   package = edu.uci.ics.jung.visualization3d.decorators: true (0.0)
|   |   package = edu.uci.ics.jung.io.graphml.parser: true (0.5)
|   |   package = net.suberic.pooka.resource: true (0.0)
|   |   package = net.suberic.pooka.gui.search: true (0.5)
|   |   package = net.suberic.pooka.thread: true (0.5)
|   |   package = net.suberic.pooka.cache: true (0.0)
|   |   package = org.lnicholls.galleon.apps.desktop: true (0.0)
|   |   package = org.lnicholls.galleon.apps.email: true (0.5)
|   |   package = org.lnicholls.galleon.apps.internetSlideshows: true (0.0)
|   |   package = org.lnicholls.galleon.widget: true (0.5)
|   |   package = org.lnicholls.galleon.database: true (0.0)
|   |   package = org.lnicholls.galleon.apps.traffic: true (0.0)
|   |   package = org.lnicholls.galleon.server: true (0.5)
|   |   package = org.webcurator.core.harvester.agent: true (0.0)
|   |   package = org.webcurator.ui.intray.controller: true (0.5)
|   |   package = org.webcurator.core.profiles: true (0.5)
|   |   package = org.webcurator.ui.tools.controller: true (0.5)
|   |   package = org.webcurator.ui.site.controller: true (0.5)
|   |   package = org.webcurator.core.targets: true (1.0)
|   |   package = org.webcurator.ui.admin.controller: true (0.5)
|   |   package = org.webcurator.ui.target.controller: true (1.51)
|   |   package = proguard.optimize.info: true (0.5)
|   |   package = proguard.retrace: true (0.0)
|   |   package = org.apache.roller.planet.util: true (0.0)
|   |   package = org.apache.roller.weblogger.ui.struts2.core: true (0.5)
|   |   package = org.apache.roller.weblogger.webservices.xmlrpc: true (0.5)
|   |   package = org.apache.roller.weblogger.util: true (0.0)
|   |   package = org.apache.roller.weblogger.ui.core.util.menu: true (0.5)
|   |   package = com.mvnforum.user: true (2.51)
|   |   package = com.mvnforum.auth: true (0.5)
|   |   package = org.archive.crawler.framework: true (0.0)
|   |   package = org.archive.extractor: true (0.0)
|   |   package = org.archive.crawler.admin.ui: true (0.0)
|   |   package = org.archive.crawler.extractor: true (0.0)
|   |   package = org.archive.crawler.settings: false (0.5)
|   |   package = net.sourceforge.ganttproject.filter: true (0.0)
|   |   package = org.ganttproject.impex.msproject: true (0.48)
|   |   package = net.sourceforge.ganttproject.gui.options: true (0.5)
|   |   package = net.sourceforge.ganttproject: true (0.5)
|   |   package = freemind.modes.browsemode: true (0.0)
|   |   package = freemind.modes.mindmapmode.listeners: true (0.0)
|   |   package = accessories.plugins: true (0.0)
|   |   package = freemind.modes.mindmapmode.actions: true (0.0)
|   |   package = test.net.sourceforge.pmd.rules.basic: true (0.0)
|   |   package = net.sourceforge.pmd.util: true (0.0)
|   |   package = com.itextpdf.text.pdf.collection: true (0.0)
|   |   package = com.itextpdf.text.pdf.qrcode: true (0.5)
|   |   package = com.itextpdf.text.pdf.fonts.cmaps: true (0.0)
|   |   package = com.itextpdf.text.html.simpleparser: true (0.5)
|   |   package = com.itextpdf.text.pdf.codec: true (0.0)
|   |   package = com.itextpdf.text.pdf: true (2.01)
|   |   package = org.gjt.sp.jedit.help: true (0.0)
|   |   package = org.gjt.sp.jedit.textarea: true (0.5)
|   |   package = org.gjt.sp.jedit: true (0.0)
|   |   package = org.gjt.sp.jedit.gui: true (0.0)
|   |   package = org.columba.core.gui.trayicon: true (0.0)
|   |   package = org.columba.mail.smtp: true (0.5)
|   |   package = org.columba.mail: true (0.0)
|   |   package = org.jhotdraw.draw.locator: true (0.0)
|   |   package = org.jhotdraw.samples.odg.io: true (1.0)
|   |   package = org.jhotdraw.draw: true (0.0)
|   |   package = artofillusion.animation.distortion: true (0.0)
|   |   package = artofillusion.object: true (0.0)
|   |   package = artofillusion.view: true (0.0)
|   |   package = artofillusion.raytracer: true (1.51)
|   |   package = artofillusion.translators: true (0.5)
|   |   package = artofillusion.raster: true (1.51)
|   |   package = org.hsqldb.result: true (0.5)
|   |   package = org.hsqldb: true (2.51)
|   |   package = org.hsqldb.index: true (0.5)
|   |   package = org.hsqldb.cmdline: true (0.5)
|   |   package = org.hsqldb.store: true (0.0)
|   |   package = org.apache.jmeter.protocol.http.control: true (0.0)
|   |   package = org.apache.jmeter.monitor.parser: true (0.5)
|   |   package = org.apache.xerces.impl: true (1.51)
|   |   package = jena: true (0.5)
|   |   package = com.hp.hpl.jena.rdf.arp: true (0.0)
|   |   package = com.hp.hpl.jena.reasoner.rulesys.impl: true (0.5)
|   |   package = com.hp.hpl.jena.reasoner.rulesys: true (0.0)
|   |   package = org.jgroups.demos.wb: true (0.0)
|   |   package = net.sf.freecol.client.gui.i18n: true (0.0)
|   |   package = net.sf.freecol.client.gui: true (0.5)
|   |   package = net.sf.freecol.common.model: true (0.5)
|   |   package = edu.rice.cs.drjava.model.repl: true (0.5)
|   |   package = edu.rice.cs.drjava.ui: true (0.0)
|   |   package = org.apache.xpath: true (0.0)
|   |   package = org.apache.xalan.xsltc.compiler: true (0.0)
|   |   package = org.apache.xalan.xsltc.dom: true (0.0)
|   |   package = edu.umd.cs.findbugs.jaif: true (0.0)
|   |   package = edu.umd.cs.findbugs.classfile.engine: true (0.0)
|   |   package = edu.umd.cs.findbugs.ba.npe: true (0.5)
|   |   package = edu.umd.cs.findbugs.detect: true (0.5)
|   |   package = org.exolab.castor.builder.appInfo.generated.simple: true (0.0)
|   |   package = org.castor.xmlctf.bestpractise.genpackage.descriptors: true (0.5)
|   |   package = org.castor.persist: true (0.48)
|   |   package = org.castor.cpa.persistence.sql.driver: true (0.5)
|   |   package = org.exolab.castor.xml: true (0.5)
|   |   package = org.exoplatform.faces.core.renderer.html: true (0.5)
|   |   package = org.exoplatform.services.organization.ldap: true (0.0)
|   |   package = org.exoplatform.services.portletcontainer.impl: true (0.5)
|   |   package = org.jfree.chart.plot: true (0.0)
|   |   package = org.apache.lucene.search.highlight: true (0.0)
|   |   package = org.apache.lucene.index: true (0.5)
|   |   package = org.apache.catalina.valves: true (0.0)
|   |   package = org.apache.catalina.manager: true (0.0)
|   |   package = org.apache.naming.factory.webservices: true (0.5)
|   |   package = megamek.client.bot.ui.AWT: true (0.0)
|   |   package = megamek.common.weapons: true (1.0)
|   |   package = megamek.common: true (0.48)
|   |   package = megamek.common.actions: true (0.48)
|   |   package = net.sf.jasperreports.engine.xml: true (0.0)
|   |   package = net.sf.jasperreports.engine.export.xmlss: true (0.5)
|   |   package = weka.estimators: true (0.0)
|   |   package = weka.classifiers.functions: true (0.0)
|   |   package = org.argouml.uml.ui.foundation.extension_mechanisms: true (0.0)
|   |   package = org.argouml.profile.internal.ocl.uml14: true (0.0)
|   |   package = org.jruby.java.invokers: true (0.0)
|   |   package = org.jruby.util: true (0.0)
|   |   package = org.apache.poi.hslf.exceptions: true (0.0)
|   |   package = org.apache.poi.hssf.eventusermodel.examples: true (0.5)
|   |   package = org.apache.poi.hslf.examples: true (0.5)
|   |   package = net.wastl.webmail.storage.simple: true (0.0)
|   |   package = (default package): true (0.5)
|   |   package = net.wastl.webmail.logger: true (0.0)
|   NMO_type > 8: false (3.22/1.21)

Number of Leaves  : 	219

Size of the tree : 	226


Weight: 5.11

Number of performed Iterations: 2



